54
-99
-11
-39
80
-128
127
72
29
-128
127
-47
-128
-90
108
-128
0
33
127
-128
53
30
-43
-124
105
-3
16
-17
-3
6
21
-42
76
-86
5
5
-31
127
127
-12
-10
22
-33
20
-8
-8
6
10
-6
2
6
12
-20
-128
-128
-8
17
127
-128
-128
7
35
-128
-128
-128
18
-57
127
-128
-128
9
5
-51
-128
-128
-1
8
-13
7
-12
-32
-35
80
34
-8
33
18
127
-91
26
-7
-4
49
25
-24
3
-17
7
16
-5
127
-128
-128
-128
-128
-128
-128
-128
-128
-128
29
127
-128
127
-32
2
-48
-58
-75
3
6
58
47
-13
22
-3
5
-11
10
0
-14
4
48
-20
2
33
-24
-128
70
1
64
-128
-128
18
-5
-22
61
8
16
1
0
-18
-12
16
-1
-13
100
37
-24
-14
19
-63
127
62
10
-16
91
-112
30
-12
13
-33
31
-11
1
-7
10
-8
2
0
6
-6
-25
29
-3
-3
-19
127
-20
6
-3
7
-87
-128
-128
-11
4
16
-128
-128
7
-1
-27
38
-5
-8
-20
69
-62
8
-32
93
-128
127
6
23
-31
127
7
-21
1
-20
13
3
9
0
11
9
-9
-3
32
-54
-54
36
11
-33
108
127
-18
-11
9
-39
94
-57
14
5
0
-29
29
-2
-128
-128
15
-9
-2
-128
-128
-35
6
7
-128
-128
127
-12
-11
108
-128
-3
-10
7
6
-128
4
-4
-1
-87
49
62
-9
-9
15
127
-128
-4
57
127
0
-128
59
-42
-54
-19
58
-78
-2
30
-20
-7
3
2
-14
44
-16
24
-3
4
-128
127
-42
-7
15
71
127
-21
33
-1
-45
18
-6
4
0
31
-21
8
5
-1
22
-28
4
5
-4
-32
46
15
-7
21
-30
-128
18
-5
-8
127
-23
-26
-5
-7
-50
72
-13
16
-1
18
-14
-12
6
12
-79
45
49
-9
-6
49
-72
127
1
-5
10
-128
29
10
4
3
3
-2
-5
2
0
-12
-9
11
-15
7
24
32
-24
3
31
-128
-45
40
6
-64
127
127
-25
9
16
-58
32
-2
