4
0
-4
-10
-11
-2
-2
0
8
2
-4
-8
-15
0
11
4
0
5
-1
-2
-2
-11
21
28
16
6
2
-6
3
14
-1
41
41
26
10
-2
3
25
32
-10
72
69
41
16
-12
4
34
44
-8
74
74
49
36
-3
12
33
32
-19
26
48
24
21
3
23
33
13
-40
-4
24
8
15
10
15
13
1
-21
-24
3
0
5
7
-10
-3
0
-4
1
-3
-3
-4
-1
-15
-6
3
4
5
-2
-6
-7
-2
-19
-8
14
28
19
2
-7
-10
-4
-23
-12
25
58
43
11
-3
-11
-6
-31
-33
18
82
66
35
22
9
-4
-27
-41
-2
71
70
43
46
37
4
-15
-32
-15
42
58
30
44
41
12
-8
-22
-23
8
31
17
39
42
15
1
-2
-12
-9
5
5
17
19
7
0
0
4
11
13
16
15
11
6
-2
0
4
8
10
11
11
7
1
-3
-1
3
2
-5
-9
-9
-8
-6
-2
-1
-1
-7
-22
-29
-25
-17
-7
2
-2
-9
-11
-16
-15
-18
-23
-10
4
-5
-14
-4
22
40
16
-20
-14
5
-6
-14
3
39
59
26
-16
-14
5
-2
-7
2
14
21
2
-20
-12
4
1
-4
-8
-8
-9
-11
-14
-10
-10
-8
-4
2
10
0
-2
-6
-4
-2
1
3
5
12
-4
-5
-6
-4
-4
6
6
-2
6
-10
-4
2
2
-16
-3
-1
-22
1
-10
3
16
14
-17
6
14
-22
21
-7
7
38
21
-16
7
29
17
62
24
13
31
15
-23
0
30
48
110
73
33
27
11
-24
-2
22
47
127
103
50
26
9
-16
-5
9
31
63
61
37
21
10
4
3
1
1
-4
-1
-1
0
1
3
1
0
-1
-6
-1
1
2
2
4
0
-3
-3
-5
1
4
4
1
8
2
-4
-3
-5
3
4
3
-1
9
-2
-15
-15
-24
-7
-8
-9
-5
7
-1
-14
-23
-34
-17
-19
-15
-5
6
0
-5
-12
-19
0
-5
-2
3
4
-1
6
14
24
54
47
41
21
8
2
2
-4
-9
25
36
45
17
9
13
3
-21
-36
-42
-30
-17
-6
15
19
10
-18
-43
-49
-35
-16
-2
18
19
7
-15
-40
-23
-5
9
13
20
17
-1
-13
-11
37
49
37
21
5
2
-2
4
34
62
61
58
16
2
-2
-6
0
5
20
8
-3
-4
4
-1
-3
-3
-10
4
-7
-13
-6
6
0
-1
-3
-18
-5
-9
-10
-2
4
-1
-2
-2
-14
-6
-4
-3
2
5
8
8
6
6
3
3
6
2
1
6
9
6
6
5
7
10
5
-10
-3
5
2
-1
-4
0
6
6
-15
-10
2
2
-6
-23
-27
-16
-1
-13
-12
2
13
3
-30
-56
-51
-17
-9
-8
6
29
36
1
-47
-65
-32
-9
-11
2
35
64
42
-13
-48
-31
-12
-17
-7
23
61
60
20
-20
-16
-6
-12
-11
3
25
35
23
0
-5
-1
0
-1
-3
-10
-15
-15
-11
-5
1
0
-3
-7
-10
-13
-9
-6
-2
2
0
-4
-6
1
1
8
6
4
-2
-4
-4
1
21
27
29
16
7
-5
-5
0
17
45
41
27
5
-2
-6
-4
6
27
41
20
-5
-25
-13
-7
-4
3
16
17
-13
-32
-37
-15
-11
-9
-7
-5
-10
-33
-36
-29
-8
-9
-9
-10
-9
-10
-22
-18
-11
1
-2
-4
-4
-2
-4
-1
0
1
-2
1
-2
-5
-4
-13
-14
-10
-2
-6
10
0
-9
-8
-14
-12
-10
0
-4
20
4
-17
-13
-7
11
18
29
7
20
7
-19
-14
1
37
64
84
36
22
11
-20
-23
-8
50
94
115
58
12
9
-12
-22
-15
39
96
119
59
2
6
1
-9
-24
0
49
75
31
-5
4
8
3
0
-10
6
23
12
12
12
15
15
6
7
6
4
2
17
14
12
18
8
12
11
8
3
8
2
-4
-2
4
10
9
7
2
-9
-17
-28
-31
-4
3
3
5
1
-15
-26
-43
-42
0
0
-3
-7
-2
-25
-35
-34
-13
17
-2
-10
-11
-7
-42
-43
-8
34
42
-6
-22
-26
-12
-49
-36
30
93
74
-2
-17
-25
-9
-45
-40
-5
36
45
-18
-42
-45
-13
22
14
11
10
-9
-2
-9
-6
-8
11
3
1
4
-13
11
15
12
3
5
-12
-17
-7
-10
27
44
42
16
5
-19
-24
7
1
39
50
47
19
0
-32
-39
22
3
57
39
8
2
-1
-28
-30
27
20
51
11
-15
-13
-3
-23
-15
30
9
20
-24
-45
-22
-5
-24
-4
35
-2
11
-12
-24
-7
-4
-18
-7
12
-7
1
3
3
10
1
1
-1
-6
-8
-6
-5
-3
-1
1
-1
-4
-6
-10
-8
-10
-10
-5
6
3
-3
-2
-3
-1
-5
-10
-6
13
7
-2
0
3
16
15
3
-4
15
8
-6
-9
1
30
42
29
6
12
8
-11
-25
-23
14
42
39
16
12
10
-6
-31
-47
-19
15
29
17
12
13
1
-24
-53
-44
-19
3
4
5
8
7
-5
-25
-29
-21
-7
0
0
-1
-3
-3
-3
-6
-5
-2
1
1
0
-2
-1
-1
-8
-9
-6
-2
3
4
1
-1
-4
-6
-3
0
-1
3
7
4
-7
-11
0
16
18
5
4
10
5
-14
-23
1
35
39
12
2
10
8
-12
-27
-11
24
35
10
-1
7
9
-1
-17
-24
-10
4
2
-1
4
8
5
-4
-21
-23
-13
-5
-1
0
2
4
2
-6
-10
-8
-1
-2
-3
-2
3
9
8
7
6
3
-2
-2
1
6
11
9
5
3
1
-3
-2
2
5
5
0
-5
-6
-4
-2
0
1
-1
-10
-18
-19
-12
-6
1
3
1
-9
-23
-27
-18
-5
1
2
3
-2
-12
-20
-14
1
11
8
2
1
-2
-5
-2
9
19
18
7
1
1
1
4
12
18
19
13
2
1
2
4
6
7
8
6
2
-2
2
2
0
-3
-1
0
1
2
2
1
1
-1
-2
2
6
6
6
6
0
-1
-2
0
7
10
8
5
4
-1
-1
0
4
7
4
-4
-8
-4
0
3
7
7
0
-13
-21
-16
-7
0
5
8
0
-16
-25
-17
-3
1
2
5
4
-9
-23
-13
10
22
11
3
4
-1
-11
-14
4
25
29
13
3
2
0
-1
-1
7
13
12
5
-3
-3
-4
-7
-9
-6
-5
-7
-5
-3
-3
-5
-10
-11
-10
-7
-4
-1
0
-2
-2
0
5
3
-3
-5
0
1
-3
2
17
35
27
5
-8
-3
-2
-7
2
26
47
31
-1
-17
-5
-5
-8
-2
13
20
0
-20
-21
-4
-5
-6
-5
-6
-11
-23
-21
-11
-1
-5
-5
-7
-11
-14
-14
-6
1
2
-4
-3
-3
-5
1
2
3
5
2
