12
12
16
-5
9
-17
1
-17
-21
-15
-18
-20
2
-3
-13
-24
-16
15
-23
-20
-4
-24
5
-19
-30
15
7
-11
12
-27
-12
21
-3
-8
14
18
-28
-10
9
-36
0
-20
-22
-14
-28
29
17
-6
12
7
-7
26
20
-5
-15
-6
-23
-2
-9
-27
-11
-7
-34
-28
21
7
-1
-36
-15
17
-33
19
-19
-23
-23
5
10
17
-32
-26
5
5
1
11
4
-18
4
-18
-19
-18
22
-10
8
15
-8
6
0
-26
15
-13
-1
-19
-37
4
3
9
-12
-19
-128
81
-23
-128
125
-49
-128
37
-19
-128
-34
3
-128
-128
86
-128
70
31
-128
-128
93
-128
114
-51
-128
-5
-84
-128
101
-52
-128
7
79
-128
-9
8
-128
22
-10
-128
127
-67
-128
10
-39
-22
8
1
-26
1
-7
-25
1
1
-128
-66
59
-128
-128
127
-128
-2
-90
-128
8
18
-128
125
45
-128
1
-4
-128
-17
23
-128
127
19
-128
-44
-15
22
26
-6
-12
18
-1
-9
-36
22
-128
-111
4
-128
44
48
-128
82
-3
-128
17
-64
-128
127
-84
-128
67
-4
-39
99
98
-69
127
-84
-17
114
-122
26
8
-88
-11
127
-102
-45
127
44
-81
-128
-59
-126
127
126
61
22
58
-42
-128
16
-128
-128
-128
-98
-78
-18
-29
-53
15
72
-68
-3
89
-108
98
-5
30
22
-11
-20
-9
-27
-20
16
81
75
3
49
-128
-128
39
18
-44
48
-112
-10
127
127
-44
34
-27
-56
29
56
-128
-103
127
77
-35
127
63
15
-22
-2
-20
1
-18
-15
28
18
63
-46
-2
-124
127
-104
22
-128
56
6
18
85
61
127
127
-87
-103
22
127
80
19
111
31
-82
67
-14
-29
-78
-64
-32
-69
-128
-89
127
-89
-128
-5
-127
-18
18
127
87
-42
127
97
-35
-128
14
-40
-128
75
-29
-53
-82
-128
85
97
-126
-128
-88
-4
102
-128
-17
-5
29
14
1
-8
-8
19
26
62
127
26
-95
-18
127
-28
98
127
0
-128
-50
-72
-8
1
54
-31
-35
-128
-122
-93
-58
102
7
-90
-92
6
10
-9
-20
-16
-12
5
12
-11
-9
110
99
91
119
127
124
-115
29
2
-30
-2
45
-46
121
-68
40
-5
-83
54
-56
-7
74
66
-22
-29
-48
-4
-13
19
-5
74
-128
71
-42
-59
36
91
-94
-3
7
127
70
-45
50
-46
-55
-2
-30
-84
-128
-17
-32
-62
20
62
-51
-6
-57
127
-20
24
54
-28
0
5
-3
22
-10
18
23
7
-10
-46
-81
1
-114
-74
127
51
38
13
-7
-1
-12
-5
127
45
6
36
19
-63
22
11
27
127
-41
-24
19
74
-9
13
20
-31
-12
-2
8
-17
-22
73
-58
52
53
91
-72
-5
-8
-53
-2
-9
29
26
127
-128
24
65
-53
-59
-60
47
-2
-108
127
38
59
46
9
127
5
78
127
80
80
49
10
-2
127
53
9
-128
-118
-8
-81
-21
61
116
-44
122
121
13
27
-35
-34
11
6
-49
-13
82
-17
-31
-56
-4
24
-6
4
1
24
24
3
-15
2
12
10
-11
25
127
36
-70
3
40
-35
28
34
-102
-1
-20
-34
55
45
52
76
8
69
-95
-7
97
-52
-78
1
-29
25
25
8
7
-22
-5
-5
4
-128
-68
-56
-83
-31
-45
24
-7
15
22
-45
24
-87
-21
-77
-56
22
-20
9
-39
-101
127
9
-19
-66
30
-12
-2
31
-89
124
-29
-13
-111
18
10
78
8
-31
127
5
19
17
-22
28
-29
9
-7
63
10
15
106
-4
2
9
-7
65
-61
56
5
34
-41
-23
21
17
4
-23
0
-11
-30
-3
-36
37
-75
82
40
-63
19
-1
8
56
-17
16
67
111
-32
16
-53
17
-31
1
30
-75
127
25
-49
16
-16
30
-23
-10
-27
-22
-1
-21
6
8
-62
127
-38
-67
106
30
36
25
-21
-30
7
-41
-11
18
38
6
59
-10
-77
45
-11
-4
52
113
52
73
-24
51
-13
-12
-128
32
-53
94
127
2
-89
35
8
74
56
-122
-50
-28
13
80
-28
13
127
127
44
-26
-44
-41
-52
86
59
126
-124
-43
-52
-128
51
8
12
-12
23
10
-22
-2
16
-10
36
127
1
92
86
-97
-79
-34
-58
-32
-58
32
93
127
-74
-40
-44
-2
104
28
-29
37
38
33
114
118
-47
4
6
19
25
8
11
-11
14
12
-105
-55
-51
64
127
-4
-21
-2
73
-24
-18
35
-12
127
101
-87
-10
29
-128
-128
-128
49
127
-73
-70
-88
46
-128
-128
-128
36
121
-10
-46
-26
91
-128
-128
-128
45
127
15
73
-30
-4
-128
-128
-128
-24
38
-37
50
127
57
-128
-128
-128
-128
-128
97
53
22
-78
-24
-28
1
15
-20
11
26
23
20
-128
-128
-128
-74
127
-128
15
33
9
-128
-128
-128
-15
127
60
-65
-31
0
-128
-128
-128
20
127
3
-35
14
-17
23
-23
8
7
27
16
21
20
14
-128
-128
-128
-128
-6
127
34
93
-47
-128
-128
-128
-87
61
-67
62
6
-61
14
-53
103
111
127
-105
15
54
38
-53
39
7
127
10
-12
-34
-93
-107
127
-57
-1
-95
127
119
69
-2
1
-62
101
-10
11
-128
10
56
127
25
-54
-82
-46
-128
127
49
50
93
-63
-9
17
16
-30
-16
-17
20
16
13
-35
-71
46
-39
127
-37
-41
29
113
-103
127
-18
-20
-81
30
-67
-4
-53
-4
40
-34
127
127
-20
-20
-73
-10
1
-17
-4
-12
25
22
-6
-23
19
127
127
12
-96
-127
-45
-70
-48
-21
10
95
-100
51
93
2
13
65
78
114
-89
-9
127
-118
-117
-18
91
-87
-16
-8
20
74
-128
48
-14
-54
44
56
-111
94
-121
-58
77
-93
48
-8
49
14
-90
100
-128
-107
-20
-21
8
-3
-43
-22
-128
127
-99
65
53
-77
-18
19
13
-10
3
-1
25
-25
-16
-60
-65
54
-128
-128
116
43
-45
18
74
-7
-25
122
105
61
114
-31
26
-50
35
5
-117
85
-56
20
-124
111
20
17
-7
-9
-28
11
15
-24
14
97
-126
107
-83
31
-27
-75
-32
69
-39
22
-110
-64
102
-123
47
19
-127
-34
31
-43
0
47
93
27
-128
-128
58
6
2
-49
52
47
-128
-10
-128
-74
-120
63
127
105
-128
-128
-91
-128
-3
-54
-10
-21
127
32
-128
-128
-128
-3
1
23
50
-28
-91
-59
-128
-128
-19
10
-29
-22
5
-16
-19
-20
-15
38
98
23
-52
-128
-89
-128
-128
-128
11
11
-1
-49
127
24
-43
-128
-128
60
101
5
-70
82
46
-114
-128
-128
-10
-29
-2
10
16
-16
-4
-24
-24
-55
-37
-35
91
127
-25
-128
47
-128
22
-67
2
5
127
-19
-128
28
-128
