91
7
14
55
66
-52
127
-112
-76
-9
-3
-2
-13
-9
13
-2
-9
-7
-30
-128
15
36
127
19
-71
-21
-30
63
55
-123
-94
109
72
52
35
8
17
-28
45
60
127
-25
-4
93
29
31
21
31
98
127
70
43
49
21
-55
12
-65
-101
108
6
32
-83
55
-19
72
-59
-55
127
72
45
-19
-32
-14
-95
-32
-85
127
39
56
-43
-11
79
-78
27
103
-15
-87
-47
-125
-34
-77
65
20
39
127
-8
-3
28
71
-33
67
-57
-116
73
5
125
2
-75
-16
-40
24
40
64
-29
13
-7
-50
-4
-3
-18
10
0
0
3
-18
-13
-3
21
79
65
86
-6
-29
121
-21
-13
127
111
38
127
23
40
14
3
44
-97
-100
56
127
62
-18
-11
85
-23
23
77
-127
43
120
47
-29
62
6
-127
26
86
75
2
-9
113
-46
-127
-104
115
-40
106
2
23
-66
-15
-1
-116
107
51
127
-100
-116
-89
-26
19
-107
-68
127
63
-71
0
94
16
53
-48
-52
-43
127
-127
-13
11
-21
-107
-128
-30
19
12
6
-30
77
13
-42
41
-15
-128
103
-40
-67
-128
-43
11
-6
4
10
6
-14
-5
-13
11
15
34
32
-16
4
29
45
27
2
57
44
69
90
127
-110
-26
-73
59
23
76
-41
9
127
2
-4
-49
114
92
-15
1
72
127
33
19
31
78
21
34
27
54
126
-39
23
-2
-29
-9
80
53
24
127
-83
-27
-89
26
15
-80
-6
55
127
-34
-8
-57
17
-103
-55
-5
9
72
-12
77
96
-14
1
111
31
-31
127
7
-72
-22
-20
-34
-90
-20
33
127
-28
-27
-81
-12
-63
19
4
101
127
-42
-13
5
-10
1
-4
-10
-18
4
-8
16
-3
8
62
5
-59
98
66
-36
-70
-102
-102
-38
127
69
-25
-128
-128
86
28
35
-33
70
-51
83
-8
7
117
85
92
-98
40
66
-99
-36
127
-118
-127
60
-91
105
62
-17
-21
-9
52
127
-12
31
3
-11
127
-83
-60
120
-127
67
67
127
127
-38
95
88
-72
6
-109
-24
-105
-83
98
-121
-29
-107
-75
-25
34
-57
-122
81
35
-4
27
108
-5
-28
7
56
-114
-127
-14
-6
127
127
-21
16
-67
52
118
-27
-10
-86
35
-7
8
-11
14
4
-9
8
14
18
4
8
-63
17
127
-2
-11
-92
25
110
23
-30
121
96
123
38
100
61
-34
127
83
-72
-127
67
78
24
111
127
127
-41
119
127
115
-43
47
-30
-61
45
-128
17
89
-88
39
-33
51
-61
-15
-122
-114
-128
-126
21
-24
35
40
127
22
15
-127
8
-69
92
-28
-42
-83
38
-34
33
73
-25
-51
-56
1
80
4
68
-127
67
74
-30
-34
-14
127
-1
-54
-126
28
38
-57
-45
12
8
-8
1
12
5
-7
-9
-10
4
-10
14
-7
16
2
2
12
3
-11
-6
0
-19
2
-14
-12
-8
9
-2
9
-8
-8
-26
-21
-18
-19
11
-16
-1
-6
-13
12
-19
1
14
-5
4
-16
5
-16
-14
2
8
13
-14
-16
-4
14
0
-21
-29
-13
-14
-5
-20
4
7
-2
-23
7
-4
-9
7
-1
8
-19
-11
-10
-8
-4
-22
11
13
4
-18
2
-24
-3
-14
-22
-3
-20
0
0
10
-23
-3
10
-21
-10
8
-7
-16
-20
12
1
-8
15
-3
26
-40
18
-128
121
-41
-104
-110
17
-20
-20
9
-4
14
-14
-15
-12
12
26
23
4
9
127
-42
-33
76
-42
127
-39
-69
-2
127
87
-5
56
115
122
5
-32
127
6
77
77
126
8
-6
127
-14
-48
-27
2
-127
37
52
9
-71
-8
127
127
-41
88
78
-18
-4
-18
17
0
-90
-61
12
-33
52
25
104
96
84
-72
7
17
-25
-51
-22
-126
-45
70
127
56
-64
-28
-40
-22
-21
-7
-34
-128
-35
33
20
-18
16
-2
-14
-32
-128
37
-2
-60
26
69
1
20
-128
111
31
-15
127
64
4
11
-8
-12
9
20
-9
-12
-10
-18
22
-40
-48
14
-128
45
-57
25
-39
127
-54
49
-128
-13
-4
-51
-128
-25
-37
-37
-1
127
56
-7
11
-43
-12
21
25
52
127
47
-14
11
-18
-46
24
20
1
61
34
-38
-44
-19
6
-25
-3
-5
127
114
7
-47
22
8
8
7
49
127
85
-42
46
-6
35
71
10
-21
47
-28
41
48
26
4
-42
-50
-7
127
91
67
-27
-11
0
40
63
22
121
11
-27
41
29
-5
34
-81
7
-63
51
-34
71
-18
-4
20
-1
-8
10
1
-14
17
6
2
-20
-70
16
55
7
-44
-3
32
-72
-110
-107
-34
2
127
27
-52
0
-29
48
-24
-34
127
-30
6
-27
1
24
55
0
54
126
-66
29
-8
2
-57
-47
-22
1
127
26
30
-84
-15
82
64
-28
48
127
8
-2
67
-50
33
45
26
49
127
50
3
38
-5
-26
16
1
-122
38
25
17
14
-11
36
117
4
89
127
30
-60
53
-6
21
41
-10
-52
86
0
-1
-13
-33
-2
9
3
0
-18
-19
16
-6
-8
5
-4
9
-13
-14
12
-2
-1
-1
-10
-12
-19
-16
-17
-21
-1
0
8
-15
-1
-9
11
-23
-19
15
-13
-12
7
-7
1
-15
-14
-19
5
-4
8
6
-4
-3
-16
-9
0
12
-16
-11
-17
12
-18
9
7
-18
-11
-13
-18
-5
-14
13
5
5
-18
-19
-1
15
-20
-1
3
-2
6
-11
-12
9
-19
17
1
-10
-9
-3
6
-3
11
14
-14
-14
9
-14
0
-1
-1
-9
9
10
4
-7
3
-18
-25
-3
-9
-18
-83
17
-2
50
-73
-87
-17
-20
10
-3
5
-16
23
-5
-4
5
-8
-9
65
32
-13
94
-128
16
-78
104
-45
-90
127
108
-7
110
-128
88
95
127
-40
-41
17
26
127
122
-10
95
32
8
-67
-4
108
127
125
2
95
60
39
96
8
75
47
-56
84
127
-6
-86
-49
13
-54
127
-72
-11
-31
27
56
38
16
-19
127
-30
-50
36
48
22
127
10
-28
-31
12
-39
-116
-52
55
-12
-19
-67
127
-50
24
56
26
-92
-108
17
20
127
-56
17
-36
0
-97
-25
61
95
-128
67
-13
47
37
-9
-16
-8
7
-14
-8
-7
16
2
8
99
21
-58
-101
105
65
-76
-6
38
-127
127
0
-101
39
-55
67
-39
-26
114
-71
40
127
-1
-8
48
-51
-47
-24
6
44
127
-35
15
-2
-11
76
17
52
-16
101
31
-2
25
36
21
-4
99
28
127
18
-62
11
-10
-76
-11
23
-18
127
1
-4
49
-68
17
-65
-19
6
51
80
-19
-17
5
38
-18
-1
38
127
48
44
6
20
-29
-39
-16
-28
127
-11
39
22
56
