-59
-1
56
87
9
126
-49
-39
7
127
102
110
93
-128
127
-125
-128
-13
-63
-128
-128
-56
127
-68
-6
-75
22
-89
-128
-12
80
-128
-13
48
104
-52
9
127
-52
-82
-12
62
49
98
-111
-54
12
-128
7
-127
-85
127
108
-33
-17
-63
-128
-83
-71
114
-83
-32
7
112
127
123
-6
-128
127
64
50
-8
-8
-25
97
-80
-51
127
-122
-60
31
-15
-43
73
-90
-72
127
101
87
127
47
-103
127
127
-128
127
7
76
90
-91
-2
4
50
12
-4
-7
127
-71
-26
-25
-11
-8
12
-16
7
-27
8
-17
-18
-6
-8
-9
1
-1
-6
-33
-4
24
-8
-8
18
1
-11
-21
-11
26
-16
-12
2
-3
7
12
16
-16
-14
-7
-15
-21
3
14
7
-3
-2
-24
-5
3
20
-16
6
-6
-12
-4
12
-16
25
-14
-3
-14
-31
-2
20
5
-12
-4
-18
-19
-17
6
-16
-18
-8
2
-10
13
6
20
-13
8
-17
12
-20
-4
-10
-19
-25
-9
3
3
-19
20
2
4
-11
-17
-11
-19
19
11
-27
-15
-17
-19
-27
4
-4
-29
-114
59
-44
4
127
24
54
53
-11
127
58
-112
59
112
-63
34
-119
22
18
127
124
110
127
-97
36
-75
-92
15
104
-6
59
-126
60
-20
40
2
-62
-97
64
-128
-128
-78
-100
-40
38
-103
-48
2
99
-91
-12
69
4
59
127
127
74
-81
-104
-46
38
34
102
127
45
-17
37
-112
28
-29
89
-23
-112
127
55
-128
-54
98
-113
0
-33
-47
127
-87
127
-127
-91
56
-103
116
93
-51
-30
127
-128
98
9
127
89
-62
0
-26
127
56
33
127
127
-72
-85
83
-13
-49
-83
54
-5
21
-30
127
-56
127
127
-125
61
81
114
26
-51
-113
-59
127
-80
49
-128
-22
-94
-24
21
42
79
61
65
35
-68
66
85
127
20
93
97
91
13
127
60
-128
-126
-34
-125
-127
-73
-128
-104
29
-128
6
-107
-128
-128
-96
-128
-128
-46
125
3
12
121
-123
127
-15
127
-28
4
16
-74
-19
-128
-75
28
16
52
42
2
127
127
79
-128
-128
127
-1
24
33
-49
40
-127
-68
-105
127
-38
7
38
-3
47
66
-13
127
126
-6
-19
6
-19
37
69
-38
-44
49
3
-13
-21
-39
-34
127
-36
-19
92
-40
55
13
62
8
127
-25
-5
96
1
-56
-26
-23
-4
82
9
29
-23
-5
-21
-43
-26
43
125
-9
15
19
-28
-30
-1
-21
-25
127
7
-19
34
-32
-75
28
-24
91
-32
-32
-51
-44
-26
39
8
66
-43
56
-53
-38
-43
-25
-25
-81
-60
19
127
10
-44
-54
-3
31
-21
70
18
119
59
-26
34
34
71
49
-20
-39
117
37
-15
-3
-44
51
1
19
-21
-69
-62
127
-6
87
-11
-67
44
20
-62
9
-34
-40
41
37
92
28
-22
127
67
-34
42
-8
-35
-10
-39
22
124
14
-56
4
16
-29
25
5
-94
11
-19
27
28
-7
-19
-12
-17
-81
127
10
-14
-32
5
-46
40
-28
-28
120
6
13
-7
-51
71
18
-73
11
-60
35
-33
-59
-29
33
37
-2
46
50
-65
-7
-41
21
-40
71
48
-15
127
74
-21
-15
25
63
-10
44
5
50
-26
17
12
42
38
-39
68
0
-47
58
94
-66
68
-76
22
24
124
127
63
-17
82
-105
44
28
2
-5
28
12
35
18
89
-40
23
-18
8
127
97
-81
43
46
14
-34
-121
89
127
15
25
54
-97
40
-102
36
-34
5
-100
73
-46
16
40
12
-105
97
40
-128
104
29
9
-74
-27
13
127
127
-128
19
-22
34
21
127
61
-128
-78
-15
-12
65
45
-22
-30
-72
47
126
-71
37
-8
26
-51
22
11
-15
127
16
-73
-55
28
41
31
5
-54
127
72
-112
0
24
-50
-16
-21
-69
76
-9
106
-71
31
31
5
-21
-128
-29
-8
127
93
-3
68
-28
34
-95
6
-67
17
-48
-25
-31
35
-9
-32
127
4
50
22
-12
-23
13
100
-22
127
50
10
60
11
-44
127
-80
92
-92
18
-39
-4
2
21
-46
43
54
127
3
-24
69
11
-49
35
-9
28
109
68
-6
46
15
45
-5
-38
30
127
-101
-20
28
11
-22
-22
15
-22
68
-1
65
-18
6
4
40
-46
-26
117
-66
1
-2
-102
-18
-48
32
-79
72
-29
3
-68
-31
29
-25
-3
13
127
23
83
-77
-11
59
-41
-12
-8
66
31
-128
-128
14
49
-30
14
-7
101
-18
0
11
38
-17
67
32
-3
127
-16
-24
48
-49
46
20
0
61
127
-9
3
-62
1
-41
47
35
39
9
-24
-77
19
-14
-6
-53
10
79
127
-46
-107
-35
-10
53
16
44
28
127
-7
-42
14
-14
-105
-91
29
-59
-78
86
74
125
-17
-27
-74
16
25
114
32
26
2
117
34
54
20
-27
118
36
60
21
24
-73
-124
-47
-64
108
6
-9
-52
-57
-27
-2
-4
-59
92
-26
50
-27
-45
-12
9
-43
-128
80
-40
-128
16
-74
-46
-128
-45
-128
-128
-128
-40
-59
27
77
94
75
0
127
127
92
48
0
-23
123
40
-128
127
127
-62
127
65
-9
20
22
6
98
26
-17
2
59
11
-6
47
127
127
-18
26
92
10
-47
-116
62
-9
127
24
-127
-34
-46
59
127
-74
29
127
65
-16
11
-36
43
78
-3
-62
127
-119
-30
-45
42
8
-53
-38
79
127
38
117
43
-11
71
-94
-33
71
127
-120
20
-21
-124
-119
-11
-22
-128
127
-128
-95
-128
-97
-3
43
23
77
127
16
80
-119
51
-26
-85
54
35
43
-49
18
-43
-2
45
-20
-16
30
127
48
15
47
11
-25
37
-1
14
127
-44
-41
96
-4
52
-26
17
64
-127
65
25
7
13
-4
-45
35
-13
127
-29
-14
0
12
17
-6
-15
-16
127
86
-19
21
-37
-21
-71
86
-11
76
-67
42
-50
61
-3
1
22
-32
125
-38
-11
10
-51
-41
42
-49
29
127
-30
10
-8
-5
-3
35
-25
-14
122
-11
36
32
-23
-4
8
-8
-63
127
-43
-32
-9
-58
-36
-9
-17
-57
78
-35
-86
-128
69
-11
24
10
12
-9
-26
95
62
44
-42
-1
36
-72
121
-59
124
50
-43
43
111
19
-80
127
44
-54
-9
36
115
3
-3
30
109
18
-55
6
12
-32
-52
59
11
127
32
53
55
78
127
70
-24
-105
95
-13
-74
75
-37
110
-18
126
77
59
79
104
5
-19
-62
-30
0
-87
17
-70
-113
-74
-5
-121
-95
-37
127
127
-14
103
-128
0
9
-2
-81
14
127
0
-11
-128
-123
-58
-54
-65
-71
127
-21
-106
-61
-15
-71
42
32
63
47
11
20
-55
65
