16
127
14
-45
-42
-75
-24
127
127
-128
-128
2
127
127
127
-22
-128
-85
-22
-107
2
72
25
127
127
-46
1
-54
-59
-51
32
127
127
-36
-105
9
99
-18
29
127
-66
-75
127
-7
-16
-51
56
104
-42
-23
-85
-48
44
-65
87
127
71
16
127
127
-52
-102
127
62
106
79
26
-51
-13
127
108
-128
-128
127
-53
-128
-127
58
-38
127
-29
36
-7
7
127
127
127
127
-128
41
-106
127
127
-46
-31
127
-91
113
25
-61
-125
-128
-128
127
-127
48
18
-61
43
17
-19
-1
-54
-44
42
22
-18
39
0
27
-97
29
43
-64
-93
14
-53
-14
40
42
11
21
-19
-28
-5
12
-39
-11
-10
127
-32
-46
-40
-39
17
18
27
-8
109
-9
-16
28
9
14
-41
20
10
-4
-6
11
5
17
-60
-46
-13
-66
-110
7
10
17
43
31
-5
22
-53
127
22
-3
24
-8
-14
-25
17
67
40
6
9
-45
4
23
1
-15
-3
-14
14
-37
31
23
-40
11
-15
34
47
-19
13
20
-15
-4
-8
-26
38
94
-12
-11
-5
-16
-63
-128
47
53
42
65
-38
-46
-16
127
4
-52
-67
-23
-53
77
32
-10
-21
-35
-23
-15
54
-20
14
-14
36
14
10
45
-14
90
12
-7
-17
14
14
19
-10
76
79
-71
-17
45
29
6
-69
-10
7
87
-41
-40
11
-23
45
-23
-22
-13
127
-39
25
18
-52
32
5
-31
22
86
-3
34
-13
-22
-3
-9
-14
3
91
37
-24
26
-8
33
-3
-9
25
-128
28
11
-91
42
-9
20
15
-31
57
7
-19
-67
-15
-12
-36
27
-14
84
-35
-10
13
2
-128
127
-21
-68
127
-63
-2
-77
28
84
-128
-44
127
-128
127
120
-128
-128
46
26
-128
127
-128
127
30
-126
127
11
53
91
121
127
-128
-25
-74
49
-60
43
17
-53
88
-128
-128
61
15
-7
-14
14
25
127
-128
4
127
127
110
-52
-113
127
81
-128
98
-22
-128
28
-84
-65
-81
126
4
127
42
14
80
84
-85
126
-66
28
-66
53
-8
-2
44
109
118
-43
125
68
-98
118
3
-30
-9
126
-128
11
-120
-53
-128
-25
-128
127
-128
127
-128
-84
94
-78
-43
-29
-7
97
-111
17
-83
81
54
127
97
-16
127
127
-4
127
119
6
29
57
2
-46
-128
-82
-16
54
-32
-31
-26
75
-85
49
-4
43
34
95
34
-55
-16
-11
127
35
-3
-7
-16
15
27
10
-27
-11
-95
43
-36
-53
-82
-128
-22
21
-12
67
12
-9
-6
-60
30
-1
-12
-9
-14
-44
26
37
32
127
47
-105
-72
-35
127
-47
-30
-25
-3
-16
37
20
-25
8
127
127
-8
-51
7
118
65
47
3
49
17
-21
-18
8
10
52
30
-38
-48
1
68
-57
-15
-67
86
-6
-18
9
-3
73
44
-27
127
-23
7
-22
-60
24
-7
-38
19
19
-101
5
53
12
-34
-41
-26
-14
32
126
5
25
-59
-47
-49
-26
-13
-29
91
7
-16
-48
-18
42
-43
15
51
43
10
34
22
6
127
127
34
60
38
46
-33
4
81
-21
6
31
-12
37
7
29
21
-17
56
24
-13
59
59
6
-26
38
10
-13
4
-2
-9
-19
-24
-11
-26
-128
23
8
-8
-44
60
-49
6
18
9
-9
-57
52
-14
67
-12
28
-16
23
-39
49
25
127
-127
127
32
88
52
127
-93
55
-92
124
-98
121
-128
-69
109
127
45
-51
-128
127
127
-37
57
-22
-38
-18
3
122
-40
-128
51
20
-18
-47
-36
-61
29
-30
-128
37
7
0
-58
127
77
-38
40
30
6
-19
127
127
127
127
16
124
123
111
127
23
-24
-9
-61
37
-7
65
-66
-61
94
127
49
47
16
19
7
39
-27
-128
-128
-128
-128
-128
-128
-128
-128
-128
-92
-20
-33
48
24
-21
15
-11
-30
23
-27
-2
14
24
-127
31
48
28
82
87
32
-26
42
121
-38
-52
-56
-128
-128
-4
0
25
-73
127
-66
6
-29
-23
-64
5
38
-23
-31
8
3
-82
47
45
-25
126
-26
31
27
-115
-101
-55
-42
-13
126
-34
-45
1
-78
43
-40
-5
18
127
77
-24
-73
127
110
9
25
-11
-128
13
-6
-30
-32
-23
30
4
-99
9
-29
-20
69
32
-25
-50
-10
66
-66
41
-12
-58
47
0
126
30
-8
127
-35
127
110
-128
127
-57
28
86
-14
28
29
7
-1
-35
33
33
89
1
-41
-33
83
8
-10
56
-34
-53
-11
-50
100
-66
36
-128
-37
75
-126
98
6
-111
40
-26
46
15
64
18
95
38
-46
-26
-1
4
26
-6
19
112
19
-3
-67
-30
-20
32
1
52
37
79
-37
-19
-10
-57
10
-4
-41
62
-24
23
39
96
4
-13
127
60
-48
-63
-15
-19
-45
18
-5
21
-28
1
38
-2
-7
-82
-47
69
-23
37
-15
6
-57
18
9
-11
49
12
-23
39
30
-41
11
-126
-23
-8
4
8
37
5
24
13
8
56
60
-112
1
-50
9
21
82
6
16
16
17
-128
127
8
65
33
4
-85
-45
-5
-61
-69
30
-92
-23
-43
-45
-82
-83
70
127
-72
-36
39
127
-5
5
23
-26
63
-11
14
-10
-16
-91
-45
-54
19
36
9
-38
-18
-19
-4
3
4
31
53
-81
-8
-5
100
-66
18
1
-23
12
-99
20
37
-53
-65
-33
-39
-37
116
-70
-19
49
86
63
78
-6
9
-35
-5
-33
37
-23
-31
-21
39
-2
17
127
5
-39
13
71
101
19
55
38
65
-47
-53
-33
89
-22
12
-7
6
-31
31
49
27
-23
127
91
83
127
-53
-15
-17
35
-19
-19
-79
-93
-127
123
-56
98
4
109
127
-38
127
-34
127
3
3
-22
-34
-52
-125
16
127
112
50
3
105
9
-52
-2
-83
-69
18
-61
67
-12
42
55
37
43
-26
94
-12
21
20
-8
101
-115
4
92
75
60
2
-24
49
37
-93
-125
127
119
10
-43
-126
-36
116
6
-23
-127
14
-8
80
-59
-18
-90
27
40
11
22
-35
116
127
22
16
26
127
-128
-11
-14
36
24
37
-126
23
-15
-39
-85
12
-44
15
38
127
100
22
-128
-21
-38
13
-14
41
127
-128
-16
120
-2
-7
-17
-12
-3
127
-97
-65
7
3
-7
14
0
-22
-127
-128
-71
127
55
32
-128
15
-69
-128
-128
127
-45
-6
-91
99
-128
10
-84
-128
-4
127
-128
-37
31
9
-104
-128
127
-5
-128
-128
-12
-5
-17
127
29
-126
-46
40
98
29
93
-61
-128
-128
-128
20
-58
127
3
10
-52
44
67
-128
8
127
-128
14
-31
-11
-60
-126
123
107
58
-25
-29
-5
81
-37
127
127
54
127
-110
28
53
0
